{"learner":{"attributes":{},"feature_names":[],"feature_types":[],"gradient_booster":{"model":{"gbtree_model_param":{"num_parallel_tree":"1","num_trees":"10"},"iteration_indptr":[0,1,2,3,4,5,6,7,8,9,10],"tree_info":[0,0,0,0,0,0,0,0,0,0],"trees":[{"base_weights":[-1.4798655E-9,-4.6905722E-2,9.500007E-1,7.079003E-1,-4.6964698E-2,9.5086825E-1,6.6335154E-1,4.3363732E-1,9.310669E-1,5.5693126E-1,-4.698292E-2,9.326773E-1,2.8575358E-1,4.5335633E-1,8.191951E-1,1.4598421E-2,5.470276E-1,-7.048377E-3,2.8265435E-1,1.4807498E-1,2.7723953E-1,-4.6984836E-2,5.311521E-1,8.0798346E-1,9.3419087E-1,9.0295976E-1,1.07459396E-1,2.0888446E-1,8.4281886E-1,1.4295162E-1,-1.3215706E-2,7.650916E-1,1.7244513E-1,-1.35328835E-2,2.4505992E-1,-4.6985798E-2,1.5770973E-1,-9.397836E-3,2.2872259E-1,5.3517175E-1,9.035982E-1,8.9837575E-1,9.38317E-1,-7.048377E-3,9.193382E-1,-3.1362474E-2,2.62078E-1,-1.1747295E-2,1.9060217E-1,7.3003423E-1,2.8265435E-1,-1.0572566E-2,2.5102374E-1,2.3825271E-1,-1.3313601E-2,-1.4096458E-2,9.197043E-3,-1.233466E-2,1.9060217E-1,2.3927677E-1,3.314146E-2,2.7839166E-1,-9.397836E-3,2.8278103E-1,2.4533124E-1,2.2129875E-1,2.816416E-1,9.060216E-2,2.8079784E-1,1.4295162E-1,-1.3883166E-2,1.21841855E-1,2.6979592E-1],"categories":[],"categories_nodes":[],"categories_segments":[],"categories_sizes":[],"default_left":[0,0,0,0,0,0,0,0,0,0,0,0,0,0,0,0,0,0,0,0,0,0,0,0,0,0,0,0,0,0,0,0,0,0,0,0,0,0,0,0,0,0,0,0,0,0,0,0,0,0,0,0,0,0,0,0,0,0,0,0,0,0,0,0,0,0,0,0,0,0,0,0,0],"id":0,"left_children":[1,3,5,7,9,11,13,15,17,19,21,23,-1,25,27,29,31,-1,-1,33,-1,35,37,39,41,43,45,47,49,-1,-1,51,53,-1,-1,55,57,-1,-1,59,61,63,65,-1,67,69,-1,-1,-1,71,-1,-1,-1,-1,-1,-1,-1,-1,-1,-1,-1,-1,-1,-1,-1,-1,-1,-1,-1,-1,-1,-1,-1],"loss_changes":[9.752086E4,9.287109E1,2.496875E1,9.572891E0,2.2974121E1,2.1796875E0,9.904709E0,3.5556307E0,9.66362E-1,9.321487E0,2.338379E0,8.598633E-1,0E0,2.1053204E1,2.4047394E0,4.815416E-1,4.687359E0,0E0,0E0,4.0420547E0,0E0,4.165039E-1,9.344206E-1,2.3857422E0,4.0478516E-1,9.1685486E-1,8.323177E0,8.7111104E-1,1.2397003E0,0E0,0E0,2.1513386E0,3.1357822E0,0E0,0E0,3.8916016E-1,9.757731E-1,0E0,0E0,3.3668003E0,1.8521042E0,2.4234009E0,4.736328E-2,0E0,3.136444E-1,5.295576E-1,0E0,0E0,0E0,4.2953568E0,0E0,0E0,0E0,0E0,0E0,0E0,0E0,0E0,0E0,0E0,0E0,0E0,0E0,0E0,0E0,0E0,0E0,0E0,0E0,0E0,0E0,0E0,0E0],"parents":[2147483647,0,0,1,1,2,2,3,3,4,4,5,5,6,6,7,7,8,8,9,9,10,10,11,11,13,13,14,14,15,15,16,16,19,19,21,21,22,22,23,23,24,24,25,25,26,26,27,27,28,28,31,31,32,32,35,35,36,36,39,39,40,40,41,41,42,42,44,44,45,45,49,49],"right_children":[2,4,6,8,10,12,14,16,18,20,22,24,-1,26,28,30,32,-1,-1,34,-1,36,38,40,42,44,46,48,50,-1,-1,52,54,-1,-1,56,58,-1,-1,60,62,64,66,-1,68,70,-1,-1,-1,72,-1,-1,-1,-1,-1,-1,-1,-1,-1,-1,-1,-1,-1,-1,-1,-1,-1,-1,-1,-1,-1,-1,-1],"split_conditions":[-1.3342883E-6,-2.3869692E-5,-4.9513695E-4,-2.9172412E-5,-3.1758326E-1,4.3343566E-2,2.9665794E-2,-5.251988E-3,9.537595E-1,-6.1278392E-6,-4.582912E-6,-1.3319443E-6,2.8575358E-1,-2.6490605E-3,-3.198411E0,-5.913908E-6,-3.6461388E-3,-7.048377E-3,2.8265435E-1,-5.243514E-6,2.7723953E-1,-1.860218E-4,1.1588641E0,-1.3912389E-1,-3.198411E0,-3.2743043E-5,-5.263755E-6,7.547756E-1,-1.2196304E-5,1.4295162E-1,-1.3215706E-2,2.670594E0,-5.4287284E-6,-1.35328835E-2,2.4505992E-1,-4.5671804E-6,4.1285384E-1,-9.397836E-3,2.2872259E-1,-1.9952469E-1,1.5185331E1,-1.8480554E-3,2.1627244E-1,-7.048377E-3,7.868116E-1,7.718107E-1,2.62078E-1,-1.1747295E-2,1.9060217E-1,1.3195823E0,2.8265435E-1,-1.0572566E-2,2.5102374E-1,2.3825271E-1,-1.3313601E-2,-1.4096458E-2,9.197043E-3,-1.233466E-2,1.9060217E-1,2.3927677E-1,3.314146E-2,2.7839166E-1,-9.397836E-3,2.8278103E-1,2.4533124E-1,2.2129875E-1,2.816416E-1,9.060216E-2,2.8079784E-1,1.4295162E-1,-1.3883166E-2,1.21841855E-1,2.6979592E-1],"split_indices":[39,149,90,172,189,124,250,227,153,203,36,167,0,163,28,29,227,0,0,254,0,99,10,250,28,199,254,0,216,0,0,239,254,0,0,164,0,0,0,122,210,99,131,0,3,10,0,0,0,192,0,0,0,0,0,0,0,0,0,0,0,0,0,0,0,0,0,0,0,0,0,0,0],"split_type":[0,0,0,0,0,0,0,0,0,0,0,0,0,0,0,0,0,0,0,0,0,0,0,0,0,0,0,0,0,0,0,0,0,0,0,0,0,0,0,0,0,0,0,0,0,0,0,0,0,0,0,0,0,0,0,0,0,0,0,0,0,0,0,0,0,0,0,0,0,0,0,0,0],"sum_hessian":[2.188504E6,2.085533E6,1.02971E5,1.62E2,2.085371E6,1.02658E5,3.13E2,7.4E1,8.8E1,6.2E1,2.085309E6,8.554E3,9.4104E4,1.35E2,1.78E2,1.6E1,5.8E1,1E0,8.7E1,3E1,3.2E1,2.085303E6,6E0,1.09E2,8.445E3,5.8E1,7.7E1,7E0,1.71E2,1E0,1.5E1,3.6E1,2.2E1,2.4E1,6E0,2.085294E6,9E0,2E0,4E0,3E1,7.9E1,8.95E2,7.55E3,1E0,5.7E1,6.6E1,1.1E1,5E0,2E0,8.4E1,8.7E1,3E0,3.3E1,5E0,1.7E1,2.08523E6,6.4E1,7E0,2E0,1.8E1,1.2E1,7.7E1,2E0,5.71E2,3.24E2,2.2E1,7.528E3,2E0,5.5E1,1E0,6.5E1,3E1,5.4E1],"tree_param":{"num_deleted":"0","num_feature":"256","num_nodes":"73","size_leaf_vector":"1"}},{"base_weights":[2.392338E-6,-3.2833155E-2,6.650342E-1,5.0087214E-1,-3.2874856E-2,6.656259E-1,4.6946916E-1,3.1148115E-1,6.5484357E-1,3.9792755E-1,-3.2887857E-2,6.521664E-1,2.0005108E-1,6.7148566E-1,3.8402078E-1,-1.8872721E-2,3.9438418E-1,-5.9911204E-3,1.9882165E-1,1.1112111E-1,1.9658802E-1,-3.2889303E-2,4.031386E-1,6.649122E-1,6.361522E-1,6.792519E-1,-5.286282E-3,6.205791E-1,1.6046627E-1,-6.693004E-2,1.05298065E-1,5.4373014E-1,1.3049155E-1,-9.635413E-3,1.8204452E-1,-3.289014E-2,1.4456327E-1,-7.5182677E-3,1.7382918E-1,2.6617968E-1,6.652785E-1,5.403106E-1,6.452347E-1,2.061501E-1,-4.965902E-3,6.3932097E-1,-7.961461E-3,1.9313055E-1,5.3072385E-2,-5.9602585E-2,-9.41365E-3,-2.023571E-2,1.9813043E-1,1.7868952E-1,-9.541413E-3,1.2705782E-2,-9.8675145E-3,-1.06456205E-2,1.729516E-1,1.6463523E-1,-5.9805814E-2,1.996422E-1,8.058379E-2,3.978308E-2,1.6973263E-1,1.611362E-1,1.9441718E-1,4.9535375E-2,1.954948E-1,-5.8805807E-3,1.8492861E-1],"categories":[],"categories_nodes":[],"categories_segments":[],"categories_sizes":[],"default_left":[0,0,0,0,0,0,0,0,0,0,0,0,0,0,0,0,0,0,0,0,0,0,0,0,0,0,0,0,0,0,0,0,0,0,0,0,0,0,0,0,0,0,0,0,0,0,0,0,0,0,0,0,0,0,0,0,0,0,0,0,0,0,0,0,0,0,0,0,0,0,0],"id":1,"left_children":[1,3,5,7,9,11,13,15,17,19,21,23,-1,25,27,29,31,-1,-1,33,-1,35,37,39,41,43,-1,45,47,49,-1,51,53,-1,-1,55,57,-1,-1,59,61,63,65,-1,-1,67,-1,-1,69,-1,-1,-1,-1,-1,-1,-1,-1,-1,-1,-1,-1,-1,-1,-1,-1,-1,-1,-1,-1,-1,-1],"loss_changes":[4.778971E4,4.643164E1,1.1605469E1,4.5492363E0,1.1691406E1,1.2382812E0,5.162407E0,2.0614939E0,4.874153E-1,4.5774765E0,1.329834E0,1.315918E0,0E0,5.043335E-1,1.1693478E1,3.0788854E-1,2.293726E0,0E0,0E0,2.220576E0,0E0,3.137207E-1,5.429379E-1,5.124512E-1,2.958374E0,5.125427E-1,0E0,1.3268051E0,5.9866643E0,6.402134E-2,0E0,2.755005E0,1.7552258E0,0E0,0E0,2.4804688E-1,7.981635E-1,0E0,0E0,8.987707E-1,1.8701172E-1,3.4029388E0,7.093506E-1,0E0,0E0,5.062485E-1,0E0,0E0,3.942471E0,0E0,0E0,0E0,0E0,0E0,0E0,0E0,0E0,0E0,0E0,0E0,0E0,0E0,0E0,0E0,0E0,0E0,0E0,0E0,0E0,0E0,0E0],"parents":[2147483647,0,0,1,1,2,2,3,3,4,4,5,5,6,6,7,7,8,8,9,9,10,10,11,11,13,13,14,14,15,15,16,16,19,19,21,21,22,22,23,23,24,24,25,25,27,27,28,28,29,29,31,31,32,32,35,35,36,36,39,39,40,40,41,41,42,42,45,45,48,48],"right_children":[2,4,6,8,10,12,14,16,18,20,22,24,-1,26,28,30,32,-1,-1,34,-1,36,38,40,42,44,-1,46,48,50,-1,52,54,-1,-1,56,58,-1,-1,60,62,64,66,-1,-1,68,-1,-1,70,-1,-1,-1,-1,-1,-1,-1,-1,-1,-1,-1,-1,-1,-1,-1,-1,-1,-1,-1,-1,-1,-1],"split_conditions":[-1.3342883E-6,-2.3869692E-5,-4.9513695E-4,-2.9172412E-5,-3.1758326E-1,2.0993662E0,8.5607857E-1,3.2057545E-1,9.537595E-1,-6.1278392E-6,-4.582912E-6,-5.496223E-6,2.0005108E-1,6.400853E0,7.88411E-1,-3.0316827E-5,-3.6461388E-3,-5.9911204E-3,1.9882165E-1,-5.243514E-6,1.9658802E-1,1.0494533E0,1.1588641E0,5.2236076E-2,1.3610985E0,-2.6321562E-5,-5.286282E-3,3.0602412E0,-1.8416199E1,-1.0384352E-5,1.05298065E-1,-5.524338E-2,-5.4287284E-6,-9.635413E-3,1.8204452E-1,-2.71652E1,6.004826E0,-7.5182677E-3,1.7382918E-1,1.2855053E0,-2.0979242E-1,-4.530153E1,-4.757546E0,2.061501E-1,-4.965902E-3,8.53317E-1,-7.961461E-3,1.9313055E-1,3.3589027E1,-5.9602585E-2,-9.41365E-3,-2.023571E-2,1.9813043E-1,1.7868952E-1,-9.541413E-3,1.2705782E-2,-9.8675145E-3,-1.06456205E-2,1.729516E-1,1.6463523E-1,-5.9805814E-2,1.996422E-1,8.058379E-2,3.978308E-2,1.6973263E-1,1.611362E-1,1.9441718E-1,4.9535375E-2,1.954948E-1,-5.8805807E-3,1.8492861E-1],"split_indices":[39,149,90,172,189,49,233,131,153,203,36,254,0,18,241,7,227,0,0,254,0,186,10,131,17,135,0,209,94,37,0,244,254,0,0,143,1,0,0,3,189,230,28,0,0,3,0,0,158,0,0,0,0,0,0,0,0,0,0,0,0,0,0,0,0,0,0,0,0,0,0],"split_type":[0,0,0,0,0,0,0,0,0,0,0,0,0,0,0,0,0,0,0,0,0,0,0,0,0,0,0,0,0,0,0,0,0,0,0,0,0,0,0,0,0,0,0,0,0,0,0,0,0,0,0,0,0,0,0,0,0,0,0,0,0,0,0,0,0,0,0,0,0,0,0],"sum_hessian":[2.188504E6,2.085533E6,1.02971E5,1.62E2,2.085371E6,1.02658E5,3.13E2,7.4E1,8.8E1,6.2E1,2.085309E6,8.519E3,9.4139E4,9.1E1,2.22E2,1.5E1,5.9E1,1E0,8.7E1,3E1,3.2E1,2.085303E6,6E0,4.721E3,3.798E3,9E1,1E0,1.07E2,1.15E2,1.4E1,1E0,3.7E1,2.2E1,2.4E1,6E0,2.085294E6,9E0,2E0,4E0,5E0,4.716E3,3.34E2,3.464E3,8.9E1,1E0,1.04E2,3E0,2E1,9.5E1,2E0,1.2E1,6E0,3.1E1,5E0,1.7E1,4.3E1,2.085251E6,7E0,2E0,3E0,2E0,4.713E3,3E0,2E1,3.14E2,9.3E1,3.371E3,3E0,1.01E2,8.5E1,1E1],"tree_param":{"num_deleted":"0","num_feature":"256","num_nodes":"71","size_leaf_vector":"1"}},{"base_weights":[3.1537882E-6,-2.2982595E-2,4.6554294E-1,3.541452E-1,-2.3012063E-2,3.3913454E-1,4.659967E-1,2.231478E-1,4.605571E-1,2.8440636E-1,-2.3021339E-2,2.0811254E-1,4.182081E-1,4.5683315E-1,1.4004649E-1,-1.0943291E-2,2.8185296E-1,-5.0924523E-3,1.3985296E-1,8.334636E-2,1.3939877E-1,-2.3022164E-2,1.2385329E-1,4.5637968E-1,3.6258325E-2,4.2830613E-1,3.388437E-2,4.6469122E-1,4.4667533E-1,-5.1452108E-2,8.950335E-2,3.921393E-1,1.0008436E-1,-6.8604136E-3,1.3523307E-1,-2.30231E-2,1.5679163E-1,2.1106115E-2,4.715483E-1,1.4061184E-1,-4.8332334E-2,1.2811203E-1,4.43138E-1,-4.243307E-2,9.444084E-2,4.6529707E-1,2.5525886E-1,3.231952E-1,4.5159882E-1,-4.7682066E-2,-6.806792E-3,-1.9423457E-2,1.3030706E-1,1.2596416E-1,-1.8514551E-3,-6.907058E-3,4.7529113E-2,-7.851146E-3,1.4505538E-1,-6.839979E-2,7.789754E-2,1.4421101E-1,-4.796901E-3,-2.0164466E-2,1.2251138E-1,-3.6700398E-2,1.1968435E-1,1.3481727E-1,-4.393325E-2,1.3990016E-1,1.1287239E-1,1.3643484E-1,-3.3387245E-4,1.0653382E-1,-6.1699107E-2,1.2653507E-1,1.3821505E-1],"categories":[],"categories_nodes":[],"categories_segments":[],"categories_sizes":[],"default_left":[0,0,0,0,0,0,0,0,0,0,0,0,0,0,0,0,0,0,0,0,0,0,0,0,0,0,0,0,0,0,0,0,0,0,0,0,0,0,0,0,0,0,0,0,0,0,0,0,0,0,0,0,0,0,0,0,0,0,0,0,0,0,0,0,0,0,0,0,0,0,0,0,0,0,0,0,0],"id":2,"left_children":[1,3,5,7,9,11,13,15,17,19,21,23,25,27,-1,29,31,-1,-1,33,-1,35,-1,37,39,41,43,45,47,49,-1,51,53,-1,-1,55,57,59,61,-1,63,65,67,-1,-1,69,71,73,75,-1,-1,-1,-1,-1,-1,-1,-1,-1,-1,-1,-1,-1,-1,-1,-1,-1,-1,-1,-1,-1,-1,-1,-1,-1,-1,-1,-1],"loss_changes":[2.341872E4,2.318396E1,5.751953E0,2.1693974E0,5.953491E0,3.767025E0,5.605469E-1,1.0337608E0,2.4673843E-1,2.2445374E0,7.593994E-1,6.04199E0,8.819809E-1,4.7253418E-1,0E0,2.1581256E-1,1.1635485E0,0E0,0E0,1.2201273E0,0E0,3.5510254E-1,0E0,3.7299156E-1,3.1320426E0,9.450302E-1,3.8929674E-1,4.876709E-1,2.1290283E0,4.276864E-2,0E0,7.417979E-1,8.1811666E-1,0E0,0E0,1.640625E-1,6.702179E-1,2.3747598E-1,2.5763798E-1,0E0,6.48357E-1,8.6276436E-1,8.547363E-1,0E0,0E0,2.644043E-1,8.189429E-1,2.5543728E0,7.8326416E-1,0E0,0E0,0E0,0E0,0E0,0E0,0E0,0E0,0E0,0E0,0E0,0E0,0E0,0E0,0E0,0E0,0E0,0E0,0E0,0E0,0E0,0E0,0E0,0E0,0E0,0E0,0E0,0E0],"parents":[2147483647,0,0,1,1,2,2,3,3,4,4,5,5,6,6,7,7,8,8,9,9,10,10,11,11,12,12,13,13,15,15,16,16,19,19,21,21,23,23,24,24,25,25,26,26,27,27,28,28,29,29,31,31,32,32,35,35,36,36,37,37,38,38,40,40,41,41,42,42,45,45,46,46,47,47,48,48],"right_children":[2,4,6,8,10,12,14,16,18,20,22,24,26,28,-1,30,32,-1,-1,34,-1,36,-1,38,40,42,44,46,48,50,-1,52,54,-1,-1,56,58,60,62,-1,64,66,68,-1,-1,70,72,74,76,-1,-1,-1,-1,-1,-1,-1,-1,-1,-1,-1,-1,-1,-1,-1,-1,-1,-1,-1,-1,-1,-1,-1,-1,-1,-1,-1,-1],"split_conditions":[-1.3342883E-6,-2.3869692E-5,-1.3319443E-6,-2.9172412E-5,-3.1758326E-1,-2.9015886E-2,1.1903282E0,3.2057545E-1,9.537595E-1,-6.1278392E-6,3.2998574E-1,-2.6490605E-3,6.8155622E0,-3.2420915E-1,1.4004649E-1,-3.0316827E-5,-3.017563E-5,-5.0924523E-3,1.3985296E-1,-5.243514E-6,1.3939877E-1,1.0494533E0,1.2385329E-1,-7.395434E-6,-5.9591443E-6,-7.4754557E-6,6.605463E0,-1.6157291E1,-3.198411E0,-1.0384352E-5,8.950335E-2,-6.3276975E-6,-1.0360797E1,-6.8604136E-3,1.3523307E-1,1.5118616E0,6.004826E0,1.7213032E0,1.8115162E0,1.4061184E-1,5.9928656E0,-1.2380582E-1,1.5185331E1,-4.243307E-2,9.444084E-2,1.1251047E0,-1.7192142E-5,8.911655E0,-1.3569181E-4,-4.7682066E-2,-6.806792E-3,-1.9423457E-2,1.3030706E-1,1.2596416E-1,-1.8514551E-3,-6.907058E-3,4.7529113E-2,-7.851146E-3,1.4505538E-1,-6.839979E-2,7.789754E-2,1.4421101E-1,-4.796901E-3,-2.0164466E-2,1.2251138E-1,-3.6700398E-2,1.1968435E-1,1.3481727E-1,-4.393325E-2,1.3990016E-1,1.1287239E-1,1.3643484E-1,-3.3387245E-4,1.0653382E-1,-6.1699107E-2,1.2653507E-1,1.3821505E-1],"split_indices":[39,149,167,172,189,250,116,131,153,203,50,163,28,179,0,7,135,0,0,254,0,186,0,98,157,226,15,137,28,37,0,203,94,0,0,74,1,10,192,0,94,19,210,0,0,147,236,234,227,0,0,0,0,0,0,0,0,0,0,0,0,0,0,0,0,0,0,0,0,0,0,0,0,0,0,0,0],"split_type":[0,0,0,0,0,0,0,0,0,0,0,0,0,0,0,0,0,0,0,0,0,0,0,0,0,0,0,0,0,0,0,0,0,0,0,0,0,0,0,0,0,0,0,0,0,0,0,0,0,0,0,0,0,0,0,0,0,0,0,0,0,0,0,0,0,0,0,0,0,0,0,0,0,0,0,0,0],"sum_hessian":[2.188504E6,2.085533E6,1.02971E5,1.62E2,2.085371E6,3.71E2,1.026E5,7.4E1,8.8E1,6.2E1,2.085309E6,1.41E2,2.3E2,8.519E3,9.4081E4,1.5E1,5.9E1,1E0,8.7E1,3E1,3.2E1,2.085306E6,3E0,5.7E1,8.4E1,2.24E2,6E0,4.778E3,3.741E3,1.4E1,1E0,3.6E1,2.3E1,2.4E1,6E0,2.085296E6,1E1,2E0,5.5E1,1.3E1,7.1E1,1.1E1,2.13E2,4E0,2E0,4.763E3,1.5E1,1.46E2,3.595E3,2E0,1.2E1,3E0,3.3E1,5E0,1.8E1,2.085292E6,4E0,7E0,3E0,1E0,1E0,5.4E1,1E0,6.9E1,2E0,6E0,5E0,2.11E2,2E0,4.704E3,5.9E1,8E0,7E0,1.38E2,8E0,8.53E2,2.742E3],"tree_param":{"num_deleted":"0","num_feature":"256","num_nodes":"77","size_leaf_vector":"1"}},{"base_weights":[3.3178337E-6,-1.608735E-2,3.258942E-1,2.503849E-1,-1.610817E-2,2.3056091E-1,3.2619473E-1,2.7510262E-1,-1.1836768E-2,2.0333481E-1,-1.6114794E-2,3.4364793E-1,1.3629736E-1,3.188555E-1,9.805703E-2,2.2108827E-2,3.0969635E-1,-3.9364364E-2,5.6032438E-2,6.24835E-2,9.8846406E-2,-1.6115429E-2,9.598631E-2,3.4710658E-1,-2.4715932E-2,9.423629E-3,3.058892E-1,3.0119452E-1,3.270795E-1,-7.218777E-2,9.017305E-2,3.5965834E-2,3.295948E-1,-3.8145654E-2,-1.4137048E-2,-4.884614E-3,1.00458845E-1,-1.6116152E-2,1.2222725E-1,5.7460617E-2,1.0521163E-1,9.564998E-2,-3.8281407E-2,-2.3841029E-2,3.17225E-1,2.670474E-1,3.2346448E-1,1.8256788E-1,3.275721E-1,-3.4834653E-2,-5.7709655E-3,8.0688E-2,-5.9420555E-3,1.00555584E-1,-1.1667332E-3,-4.7871894E-3,8.8285445E-4,-4.8349597E-3,4.3532606E-2,-5.79022E-3,1.1241793E-1,-2.4953276E-2,5.0810553E-2,-2.5885276E-2,9.560226E-2,9.9956594E-2,2.3433665E-2,9.4966084E-2,-7.2480314E-3,7.979269E-2,1.0095565E-1,1.1551895E-1,-4.5813024E-2,9.891309E-2,9.085195E-2],"categories":[],"categories_nodes":[],"categories_segments":[],"categories_sizes":[],"default_left":[0,0,0,0,0,0,0,0,0,0,0,0,0,0,0,0,0,0,0,0,0,0,0,0,0,0,0,0,0,0,0,0,0,0,0,0,0,0,0,0,0,0,0,0,0,0,0,0,0,0,0,0,0,0,0,0,0,0,0,0,0,0,0,0,0,0,0,0,0,0,0,0,0,0,0],"id":3,"left_children":[1,3,5,7,9,11,13,15,17,19,21,23,25,27,-1,29,31,33,-1,35,-1,37,-1,39,-1,41,43,45,47,49,-1,51,53,-1,55,-1,-1,57,59,61,-1,-1,63,-1,65,67,69,71,73,-1,-1,-1,-1,-1,-1,-1,-1,-1,-1,-1,-1,-1,-1,-1,-1,-1,-1,-1,-1,-1,-1,-1,-1,-1,-1],"loss_changes":[1.1476093E4,1.1574829E1,2.8740234E0,1.0597448E0,3.0336304E0,3.4389782E0,3.9453125E-1,1.2972002E0,8.936175E-2,1.0988495E0,4.5147705E-1,2.4667358E-1,3.870132E0,1.1410522E0,0E0,5.206111E-1,7.016783E-1,2.9207556E-2,0E0,6.705295E-1,0E0,2.1026611E-1,0E0,1.3307953E-1,0E0,1.5472867E0,3.6157465E-1,1.9851074E0,3.538208E-1,3.2656744E-2,0E0,1.3527435E-1,2.2875309E-1,0E0,4.2003603E-4,0E0,0E0,1.296997E-1,4.0032515E-1,6.1303236E-2,0E0,0E0,1.5867709E0,0E0,2.602563E-1,1.5591965E1,1.1442719E0,1.5524316E0,2.0635986E-1,0E0,0E0,0E0,0E0,0E0,0E0,0E0,0E0,0E0,0E0,0E0,0E0,0E0,0E0,0E0,0E0,0E0,0E0,0E0,0E0,0E0,0E0,0E0,0E0,0E0,0E0],"parents":[2147483647,0,0,1,1,2,2,3,3,4,4,5,5,6,6,7,7,8,8,9,9,10,10,11,11,12,12,13,13,15,15,16,16,17,17,19,19,21,21,23,23,25,25,26,26,27,27,28,28,29,29,31,31,32,32,34,34,37,37,38,38,39,39,42,42,44,44,45,45,46,46,47,47,48,48],"right_children":[2,4,6,8,10,12,14,16,18,20,22,24,26,28,-1,30,32,34,-1,36,-1,38,-1,40,-1,42,44,46,48,50,-1,52,54,-1,56,-1,-1,58,60,62,-1,-1,64,-1,66,68,70,72,74,-1,-1,-1,-1,-1,-1,-1,-1,-1,-1,-1,-1,-1,-1,-1,-1,-1,-1,-1,-1,-1,-1,-1,-1,-1,-1],"split_conditions":[-1.3342883E-6,-2.3869692E-5,-2.8904187E-5,-6.7596804E-5,-3.1758326E-1,8.5607857E-1,2.034536E0,2.9908156E-1,-7.1553823E-6,-6.1278392E-6,3.2998574E-1,6.400853E0,-1.0444165E-5,-4.5197517E-6,9.805703E-2,3.313119E0,1.2387698E0,-3.6779645E-1,5.6032438E-2,-5.243514E-6,9.8846406E-2,1.0494533E0,9.598631E-2,-7.593455E-6,-2.4715932E-2,-1.8416199E1,8.53317E-1,5.605897E-4,2.3176828E-1,-1.4013138E-1,9.017305E-2,8.8551587E-1,-5.868102E0,-3.8145654E-2,4.4834793E-1,-4.884614E-3,1.00458845E-1,-1.860218E-4,6.004826E0,5.32993E0,1.0521163E-1,9.564998E-2,-8.6174734E-2,-2.3841029E-2,5.319949E0,-2.7959636E-1,-1.2122917E0,-9.404594E-1,3.0602412E0,-3.4834653E-2,-5.7709655E-3,8.0688E-2,-5.9420555E-3,1.00555584E-1,-1.1667332E-3,-4.7871894E-3,8.8285445E-4,-4.8349597E-3,4.3532606E-2,-5.79022E-3,1.1241793E-1,-2.4953276E-2,5.0810553E-2,-2.5885276E-2,9.560226E-2,9.9956594E-2,2.3433665E-2,9.4966084E-2,-7.2480314E-3,7.979269E-2,1.0095565E-1,1.1551895E-1,-4.5813024E-2,9.891309E-2,9.085195E-2],"split_indices":[39,149,108,136,189,233,113,198,2,203,50,18,229,228,0,82,233,77,0,254,0,186,0,226,0,94,3,227,131,122,0,5,91,0,0,0,0,99,1,4,0,0,19,0,18,243,205,122,209,0,0,0,0,0,0,0,0,0,0,0,0,0,0,0,0,0,0,0,0,0,0,0,0,0,0],"split_type":[0,0,0,0,0,0,0,0,0,0,0,0,0,0,0,0,0,0,0,0,0,0,0,0,0,0,0,0,0,0,0,0,0,0,0,0,0,0,0,0,0,0,0,0,0,0,0,0,0,0,0,0,0,0,0,0,0,0,0,0,0,0,0,0,0,0,0,0,0,0,0,0,0,0,0],"sum_hessian":[2.188504E6,2.085533E6,1.02971E5,1.62E2,2.085371E6,3.26E2,1.02645E5,1.48E2,1.4E1,6.2E1,2.085309E6,1.47E2,1.79E2,8.533E3,9.4112E4,1.8E1,1.3E2,1.3E1,1E0,3E1,3.2E1,2.085306E6,3E0,1.46E2,1E0,1.03E2,7.6E1,2.723E3,5.81E3,1.4E1,4E0,9E0,1.21E2,2E0,1.1E1,2.4E1,6E0,2.085296E6,1E1,2E0,1.44E2,1.3E1,9E1,2E0,7.4E1,1.08E3,1.643E3,2.1E1,5.789E3,7E0,7E0,1E0,8E0,1.19E2,2E0,1E1,1E0,2.085292E6,4E0,7E0,3E0,1E0,1E0,8E1,1E1,6.9E1,5E0,9.23E2,1.57E2,3.08E2,1.335E3,1.3E1,8E0,5.317E3,4.72E2],"tree_param":{"num_deleted":"0","num_feature":"256","num_nodes":"75","size_leaf_vector":"1"}},{"base_weights":[3.0858705E-6,-1.1260822E-2,2.2813562E-1,1.7672761E-1,-1.127551E-2,1.6252802E-1,2.283424E-1,1.9407317E-1,-7.3535736E-3,1.4542039E-1,-1.128024E-2,2.4127215E-1,9.6879914E-2,2.2904456E-1,2.2482522E-1,1.8084988E-2,2.181167E-1,-3.0558627E-2,4.7627576E-2,3.6424552E-3,2.065599E-1,-1.1280731E-2,7.438938E-2,2.4386624E-1,-2.1008542E-2,8.18661E-3,2.1541528E-1,2.2886059E-1,2.3913419E-1,2.2925915E-1,2.14325E-1,-5.3238474E-2,6.853151E-2,3.265068E-2,2.31531E-1,-3.0516524E-2,-1.0221295E-2,4.3532163E-2,-3.432084E-3,7.150552E-2,5.6441527E-2,-1.1282123E-2,3.220221E-2,4.8841517E-2,2.462194E-1,6.900463E-2,-2.6030865E-2,1.1285804E-3,2.3028062E-1,2.2887221E-1,2.8079778E-2,3.2090146E-2,7.1940355E-2,2.0152569E-1,2.2972512E-1,2.1757962E-1,1.5286466E-1,-2.67022E-2,-3.244444E-3,6.85848E-2,-4.357507E-3,7.151161E-2,1.7862711E-2,-3.4815923E-3,7.5042626E-4,-3.105219E-3,5.8042884E-2,-3.384766E-3,3.5526764E-2,2.0162615E-1,-9.072459E-3,-2.1210283E-2,4.3188967E-2,9.5566116E-2,7.043349E-2,-1.8215563E-2,6.9528915E-2,5.0589267E-2,-3.743409E-2,7.588027E-2,3.24035E-2,5.233355E-2,6.8665124E-2,5.5981427E-2,-1.14681765E-1,-1.14681765E-1,5.742516E-2,-2.8239554E-2,6.463203E-2,6.841207E-2,7.0203595E-2,3.7762932E-2,6.579856E-2,1.2096393E-2,7.05383E-2],"categories":[],"categories_nodes":[],"categories_segments":[],"categories_sizes":[],"default_left":[0,0,0,0,0,0,0,0,0,0,0,0,0,0,0,0,0,0,0,0,0,0,0,0,0,0,0,0,0,0,0,0,0,0,0,0,0,0,0,0,0,0,0,0,0,0,0,0,0,0,0,0,0,0,0,0,0,0,0,0,0,0,0,0,0,0,0,0,0,0,0,0,0,0,0,0,0,0,0,0,0,0,0,0,0,0,0,0,0,0,0,0,0,0,0],"id":4,"left_children":[1,3,5,7,9,11,13,15,17,19,21,23,25,27,29,31,33,35,-1,37,39,41,-1,43,-1,45,47,49,51,53,55,57,-1,59,61,-1,63,-1,-1,-1,65,67,69,71,73,-1,75,77,79,81,83,85,-1,87,89,91,93,-1,-1,-1,-1,-1,-1,-1,-1,-1,-1,-1,-1,-1,-1,-1,-1,-1,-1,-1,-1,-1,-1,-1,-1,-1,-1,-1,-1,-1,-1,-1,-1,-1,-1,-1,-1,-1,-1],"loss_changes":[5.623725E3,5.760681E0,1.359375E0,5.218854E-1,1.546814E0,1.6670208E0,2.0166016E-1,6.265302E-1,6.2671065E-2,5.4534626E-1,2.6867676E-1,1.3659286E-1,1.890629E0,1.0449219E-1,7.486572E-1,2.9722124E-1,3.183546E-1,1.9222025E-2,0E0,4.4333577E-2,1.9653845E-1,1.2658691E-1,0E0,5.5436134E-2,0E0,7.9539144E-1,2.4501967E-1,1.8945312E-1,2.0069122E-1,1.09191895E-1,9.8747253E-1,2.1799084E-2,0E0,9.576867E-2,1.2934923E-1,0E0,2.4033058E-4,0E0,0E0,0E0,8.437836E-2,1.1764526E-1,2.697431E0,4.4291582E-2,4.5209885E-2,0E0,8.2781905E-1,1.4758195E-1,1.7210793E-1,1.26953125E-2,4.616404E-1,4.6928862E-1,0E0,8.7185574E-1,3.2043457E-2,7.492676E-1,2.3976393E0,0E0,0E0,0E0,0E0,0E0,0E0,0E0,0E0,0E0,0E0,0E0,0E0,0E0,0E0,0E0,0E0,0E0,0E0,0E0,0E0,0E0,0E0,0E0,0E0,0E0,0E0,0E0,0E0,0E0,0E0,0E0,0E0,0E0,0E0,0E0,0E0,0E0,0E0],"parents":[2147483647,0,0,1,1,2,2,3,3,4,4,5,5,6,6,7,7,8,8,9,9,10,10,11,11,12,12,13,13,14,14,15,15,16,16,17,17,19,19,20,20,21,21,23,23,25,25,26,26,27,27,28,28,29,29,30,30,31,31,33,33,34,34,36,36,40,40,41,41,42,42,43,43,44,44,46,46,47,47,48,48,49,49,50,50,51,51,53,53,54,54,55,55,56,56],"right_children":[2,4,6,8,10,12,14,16,18,20,22,24,26,28,30,32,34,36,-1,38,40,42,-1,44,-1,46,48,50,52,54,56,58,-1,60,62,-1,64,-1,-1,-1,66,68,70,72,74,-1,76,78,80,82,84,86,-1,88,90,92,94,-1,-1,-1,-1,-1,-1,-1,-1,-1,-1,-1,-1,-1,-1,-1,-1,-1,-1,-1,-1,-1,-1,-1,-1,-1,-1,-1,-1,-1,-1,-1,-1,-1,-1,-1,-1,-1,-1],"split_conditions":[-1.3342883E-6,-2.3869692E-5,-2.8904187E-5,-6.7596804E-5,-3.1758326E-1,8.5607857E-1,-1.1496047E-5,2.9908156E-1,-7.1553823E-6,-8.346639E-2,3.2998574E-1,6.400853E0,-1.0444165E-5,-7.502788E-6,-1.6376698E1,3.313119E0,1.2387698E0,-3.6779645E-1,4.7627576E-2,-1.1468219E-3,3.8158275E-2,-4.5671804E-6,7.438938E-2,-7.593455E-6,-2.1008542E-2,-1.8416199E1,1.0187411E0,-1.128903E-5,-9.6892023E-1,-4.5679317E-6,4.80665E0,-7.3272794E-1,6.853151E-2,8.8551587E-1,-6.008849E0,-3.0516524E-2,4.4834793E-1,4.3532163E-2,-3.432084E-3,7.150552E-2,1.1010778E1,1.0494533E0,8.5664135E-1,5.32993E0,-6.928066E-2,6.900463E-2,-8.6174734E-2,7.547756E-1,-7.371153E-6,2.4951801E0,-2.274042E0,3.7988367E0,7.1940355E-2,7.4788136E0,-7.502788E-6,1.117587E0,4.67449E0,-2.67022E-2,-3.244444E-3,6.85848E-2,-4.357507E-3,7.151161E-2,1.7862711E-2,-3.4815923E-3,7.5042626E-4,-3.105219E-3,5.8042884E-2,-3.384766E-3,3.5526764E-2,2.0162615E-1,-9.072459E-3,-2.1210283E-2,4.3188967E-2,9.5566116E-2,7.043349E-2,-1.8215563E-2,6.9528915E-2,5.0589267E-2,-3.743409E-2,7.588027E-2,3.24035E-2,5.233355E-2,6.8665124E-2,5.5981427E-2,-1.14681765E-1,-1.14681765E-1,5.742516E-2,-2.8239554E-2,6.463203E-2,6.841207E-2,7.0203595E-2,3.7762932E-2,6.579856E-2,1.2096393E-2,7.05383E-2],"split_indices":[39,149,108,136,189,233,165,198,2,83,50,18,229,98,219,82,233,77,0,35,252,164,0,226,0,94,3,101,253,228,28,147,0,5,91,0,0,0,0,0,15,186,145,4,83,0,19,0,34,89,18,15,0,170,98,17,92,0,0,0,0,0,0,0,0,0,0,0,0,0,0,0,0,0,0,0,0,0,0,0,0,0,0,0,0,0,0,0,0,0,0,0,0,0,0],"split_type":[0,0,0,0,0,0,0,0,0,0,0,0,0,0,0,0,0,0,0,0,0,0,0,0,0,0,0,0,0,0,0,0,0,0,0,0,0,0,0,0,0,0,0,0,0,0,0,0,0,0,0,0,0,0,0,0,0,0,0,0,0,0,0,0,0,0,0,0,0,0,0,0,0,0,0,0,0,0,0,0,0,0,0,0,0,0,0,0,0,0,0,0,0,0,0],"sum_hessian":[2.188504E6,2.085533E6,1.02971E5,1.62E2,2.085371E6,3.26E2,1.02645E5,1.48E2,1.4E1,6.2E1,2.085309E6,1.47E2,1.79E2,8.551E4,1.7135E4,1.8E1,1.3E2,1.3E1,1E0,1.9E1,4.3E1,2.085306E6,3E0,1.46E2,1E0,1.03E2,7.6E1,8.4002E4,1.508E3,1.2033E4,5.102E3,1.4E1,4E0,9E0,1.21E2,2E0,1.1E1,1E0,1.8E1,3.5E1,8E0,2.08524E6,6.6E1,2E0,1.44E2,1.3E1,9E1,5E0,7.1E1,8.3997E4,5E0,5E0,1.503E3,2.06E2,1.1827E4,4.843E3,2.59E2,7E0,7E0,1E0,8E0,1.16E2,5E0,1E1,1E0,6E0,2E0,2.085234E6,6E0,5E0,6.1E1,1E0,1E0,1.6E1,1.28E2,8E1,1E1,2E0,3E0,5.9E1,1.2E1,2.1E1,8.3976E4,4E0,1E0,1E0,4E0,9E0,1.97E2,8.529E3,3.298E3,9.2E1,4.751E3,1.1E2,1.49E2],"tree_param":{"num_deleted":"0","num_feature":"256","num_nodes":"95","size_leaf_vector":"1"}},{"base_weights":[2.853506E-6,-7.882253E-3,1.5970314E-1,1.2497658E-1,-7.892634E-3,1.1501954E-1,1.5984392E-1,-3.105306E-2,1.3537756E-1,1.0443779E-1,-7.896024E-3,1.7001867E-1,6.915902E-2,1.7690544E-1,1.5971358E-1,1.5090065E-3,-2.652418E-2,6.674516E-2,1.5592475E-1,4.5547243E-3,1.474656E-1,-7.896404E-3,5.7651766E-2,1.7198512E-1,-1.785726E-2,1.1073681E-2,1.6027778E-1,1.6796042E-1,2.2734763E-1,1.601879E-1,1.5399191E-1,-2.228219E-3,1.2302259E-2,1.8607486E-2,1.6548136E-1,1.6353668E-1,-3.6456017E-3,3.7002344E-2,-2.4566497E-3,2.483653E-2,1.661745E-1,-7.89747E-3,2.5415484E-2,7.533505E-2,1.6437611E-1,6.951124E-2,-7.6179445E-2,5.6650776E-2,5.5551875E-2,-5.7577033E-2,1.7549793E-1,8.8566534E-2,1.8758662E-1,1.5613447E-1,1.6035932E-1,1.6661282E-1,1.4757775E-1,6.378623E-4,4.495662E-3,-2.0385984E-2,2.052931E-2,-1.8309915E-2,5.7486612E-2,-2.9851424E-3,5.0520856E-2,3.2806333E-2,-2.2426578E-3,5.127245E-2,-1.3455948E-3,-2.3693542E-3,2.4124205E-2,-1.1377458E-2,1.17074385E-1,4.2900294E-3,4.9948063E-2,5.1685307E-2,1.09656E-2,-4.5625344E-2,5.1678583E-2,-3.78397E-2,4.819667E-2,3.866593E-2,-1.0237016E-1,5.836006E-2,4.9292862E-2,8.660444E-2,5.3774726E-2,4.5868978E-2,4.9574178E-2,4.964255E-2,4.808304E-2,2.9056167E-2,5.036179E-2,-1.0673858E-1,4.4555873E-2],"categories":[],"categories_nodes":[],"categories_segments":[],"categories_sizes":[],"default_left":[0,0,0,0,0,0,0,0,0,0,0,0,0,0,0,0,0,0,0,0,0,0,0,0,0,0,0,0,0,0,0,0,0,0,0,0,0,0,0,0,0,0,0,0,0,0,0,0,0,0,0,0,0,0,0,0,0,0,0,0,0,0,0,0,0,0,0,0,0,0,0,0,0,0,0,0,0,0,0,0,0,0,0,0,0,0,0,0,0,0,0,0,0,0,0],"id":5,"left_children":[1,3,5,7,9,11,13,15,17,19,21,23,25,27,29,31,-1,33,35,37,39,41,-1,43,-1,45,47,49,51,53,55,-1,57,59,61,63,-1,-1,-1,65,67,69,71,-1,73,75,77,79,-1,81,83,-1,85,87,89,91,93,-1,-1,-1,-1,-1,-1,-1,-1,-1,-1,-1,-1,-1,-1,-1,-1,-1,-1,-1,-1,-1,-1,-1,-1,-1,-1,-1,-1,-1,-1,-1,-1,-1,-1,-1,-1,-1,-1],"loss_changes":[2.7558843E3,2.8773499E0,6.291504E-1,2.6873016E-1,7.949066E-1,8.1303024E-1,2.0019531E-1,2.067909E-2,2.0535398E-1,2.7008653E-1,1.6004944E-1,7.70421E-2,9.5090485E-1,3.0879402E-1,2.5170898E-1,8.6299656E-4,0E0,1.7277925E-1,1.516757E-1,3.1285245E-2,9.682006E-2,7.4279785E-2,0E0,4.7233105E-2,0E0,5.712688E-1,1.7009652E-1,1.1270008E0,2.4957848E-1,4.0283203E-2,6.088562E-1,0E0,7.735845E-5,1.1678199E-1,8.27502E-2,9.6227884E-2,0E0,0E0,0E0,1.9934112E-2,3.1464696E-2,7.0129395E-2,1.5630771E0,0E0,4.1154146E-2,2.2065341E-1,8.7480605E-1,3.054186E-1,0E0,1.2075963E0,1.0349083E-1,0E0,1.0627508E-2,8.844757E-2,1.1474609E-2,2.1478271E-1,2.5166702E0,0E0,0E0,0E0,0E0,0E0,0E0,0E0,0E0,0E0,0E0,0E0,0E0,0E0,0E0,0E0,0E0,0E0,0E0,0E0,0E0,0E0,0E0,0E0,0E0,0E0,0E0,0E0,0E0,0E0,0E0,0E0,0E0,0E0,0E0,0E0,0E0,0E0,0E0],"parents":[2147483647,0,0,1,1,2,2,3,3,4,4,5,5,6,6,7,7,8,8,9,9,10,10,11,11,12,12,13,13,14,14,15,15,17,17,18,18,19,19,20,20,21,21,23,23,25,25,26,26,27,27,28,28,29,29,30,30,32,32,33,33,34,34,35,35,39,39,40,40,41,41,42,42,44,44,45,45,46,46,47,47,49,49,50,50,52,52,53,53,54,54,55,55,56,56],"right_children":[2,4,6,8,10,12,14,16,18,20,22,24,26,28,30,32,-1,34,36,38,40,42,-1,44,-1,46,48,50,52,54,56,-1,58,60,62,64,-1,-1,-1,66,68,70,72,-1,74,76,78,80,-1,82,84,-1,86,88,90,92,94,-1,-1,-1,-1,-1,-1,-1,-1,-1,-1,-1,-1,-1,-1,-1,-1,-1,-1,-1,-1,-1,-1,-1,-1,-1,-1,-1,-1,-1,-1,-1,-1,-1,-1,-1,-1,-1,-1],"split_conditions":[-1.3342883E-6,-2.3869692E-5,-2.8904187E-5,2.7542312E0,-3.1758326E-1,8.5607857E-1,4.656913E0,8.221936E-1,1.0970048E0,-8.346639E-2,3.2998574E-1,6.400853E0,-1.0380832E-5,-3.7235638E-1,-5.794247E-1,4.4834793E-1,-2.652418E-2,-5.9739757E0,-5.868102E0,-1.1468219E-3,-1.6193851E1,-4.5671804E-6,5.7651766E-2,-1.18615575E-1,-1.785726E-2,5.3470477E-2,2.103559E1,3.219034E1,1.234801E0,3.8158275E-2,7.438953E-1,-2.228219E-3,-7.1553823E-6,-3.0585525E-5,4.3534404E-1,2.9908156E-1,-3.6456017E-3,3.7002344E-2,-2.4566497E-3,-1.1588683E0,-2.5418532E-5,-1.860218E-4,3.8344607E-1,7.533505E-2,-1.2387628E-5,-1.4727222E0,-9.803334E-2,-4.1303414E-1,5.5551875E-2,1.3445886E0,2.034536E0,8.8566534E-2,3.8344607E-1,-2.650116E-5,8.780142E0,-4.5360166E-6,2.6305247E-2,6.378623E-4,4.495662E-3,-2.0385984E-2,2.052931E-2,-1.8309915E-2,5.7486612E-2,-2.9851424E-3,5.0520856E-2,3.2806333E-2,-2.2426578E-3,5.127245E-2,-1.3455948E-3,-2.3693542E-3,2.4124205E-2,-1.1377458E-2,1.17074385E-1,4.2900294E-3,4.9948063E-2,5.1685307E-2,1.09656E-2,-4.5625344E-2,5.1678583E-2,-3.78397E-2,4.819667E-2,3.866593E-2,-1.0237016E-1,5.836006E-2,4.9292862E-2,8.660444E-2,5.3774726E-2,4.5868978E-2,4.9574178E-2,4.964255E-2,4.808304E-2,2.9056167E-2,5.036179E-2,-1.0673858E-1,4.4555873E-2],"split_indices":[39,149,108,239,189,233,234,17,192,83,50,18,229,205,189,0,0,219,91,35,249,164,0,83,0,186,222,161,242,252,241,0,2,199,0,198,0,0,0,18,199,99,131,0,216,211,19,141,0,202,113,0,131,213,132,164,188,0,0,0,0,0,0,0,0,0,0,0,0,0,0,0,0,0,0,0,0,0,0,0,0,0,0,0,0,0,0,0,0,0,0,0,0,0,0],"split_type":[0,0,0,0,0,0,0,0,0,0,0,0,0,0,0,0,0,0,0,0,0,0,0,0,0,0,0,0,0,0,0,0,0,0,0,0,0,0,0,0,0,0,0,0,0,0,0,0,0,0,0,0,0,0,0,0,0,0,0,0,0,0,0,0,0,0,0,0,0,0,0,0,0,0,0,0,0,0,0,0,0,0,0,0,0,0,0,0,0,0,0,0,0,0,0],"sum_hessian":[2.188504E6,2.085533E6,1.02971E5,1.62E2,2.085371E6,3.26E2,1.02645E5,1E1,1.52E2,6.2E1,2.085309E6,1.47E2,1.79E2,7.68E2,1.01877E5,7E0,3E0,3.6E1,1.16E2,1.9E1,4.3E1,2.085306E6,3E0,1.46E2,1E0,1.1E2,6.9E1,6.56E2,1.12E2,9.4053E4,7.824E3,4E0,3E0,2.5E1,1.1E1,1.11E2,5E0,1E0,1.8E1,6E0,3.7E1,2.08524E6,6.6E1,1E1,1.36E2,6.6E1,4.4E1,1.4E1,5.5E1,2.1E1,6.35E2,3.9E1,7.3E1,3.853E3,9.02E4,2.628E3,5.196E3,1E0,2E0,9E0,1.6E1,1E0,1E1,3E0,1.08E2,1E0,5E0,3.6E1,1E0,2.085232E6,8E0,5.7E1,9E0,2E0,1.34E2,1.5E1,5.1E1,3.4E1,1E1,5E0,9E0,1.3E1,8E0,2.29E2,4.06E2,3E0,7E1,2.856E3,9.97E2,1.4E3,8.88E4,4.8E1,2.58E3,9E0,5.187E3],"tree_param":{"num_deleted":"0","num_feature":"256","num_nodes":"95","size_leaf_vector":"1"}},{"base_weights":[2.4942324E-6,-5.5174045E-3,1.11799255E-1,8.784921E-2,-5.5246996E-3,8.1266984E-2,1.11895435E-1,-2.3884313E-2,9.530816E-2,7.4932426E-2,-5.5271275E-3,1.19767934E-1,4.9159158E-2,1.1185263E-1,1.6674921E-1,1.4194677E-3,-2.0556241E-2,2.295289E-2,1.0601608E-1,4.9155927E-3,1.0505525E-1,-5.5274214E-3,4.468012E-2,1.2127106E-1,-1.517867E-2,8.370528E-3,1.13136E-1,1.3088265E-1,1.11757375E-1,5.6005288E-2,1.8409516E-1,-1.6934465E-3,9.894962E-3,4.158984E-2,-1.2420786E-2,1.1647929E-1,-2.0619554E-2,3.1451996E-2,-1.7584439E-3,2.175181E-2,1.17636E-1,-5.5287806E-3,1.5512729E-2,1.7023136E-1,1.1399169E-1,-5.5593368E-2,4.9635835E-2,4.0346008E-2,1.3061303E-1,6.341159E-2,1.2695363E-1,1.7186448E-2,1.11804485E-1,-5.2814465E-2,3.5105094E-2,1.5806869E-1,2.8004593E-1,1.1395885E-3,4.2275945E-3,5.0718956E-2,-1.0298994E-2,3.618217E-2,-2.6652131E-2,-7.126268E-4,-2.054363E-2,2.7885381E-2,-1.6819935E-3,3.6306433E-2,-1.1437555E-3,-1.6587194E-3,1.6224448E-2,-3.7097288E-3,1.8508838E-1,2.306315E-2,5.7912633E-2,3.4320222E-3,3.464789E-2,-3.8803443E-2,3.9067514E-2,8.877734E-3,4.2211685E-2,-3.6254E-2,3.2984275E-2,5.2854657E-2,3.648633E-2,3.9047506E-2,-8.7045684E-2,-2.035845E-2,4.3789476E-2,3.3669706E-2,3.2005176E-2,-2.2562325E-2,5.5138003E-3,4.240337E-2,6.835279E-2,8.766307E-2,2.0111186E-2],"categories":[],"categories_nodes":[],"categories_segments":[],"categories_sizes":[],"default_left":[0,0,0,0,0,0,0,0,0,0,0,0,0,0,0,0,0,0,0,0,0,0,0,0,0,0,0,0,0,0,0,0,0,0,0,0,0,0,0,0,0,0,0,0,0,0,0,0,0,0,0,0,0,0,0,0,0,0,0,0,0,0,0,0,0,0,0,0,0,0,0,0,0,0,0,0,0,0,0,0,0,0,0,0,0,0,0,0,0,0,0,0,0,0,0,0,0],"id":6,"left_children":[1,3,5,7,9,11,13,15,17,19,21,23,25,27,29,31,-1,33,35,37,39,41,-1,43,-1,45,47,49,51,53,55,-1,57,-1,59,61,63,-1,-1,65,67,69,71,73,75,77,79,81,83,-1,85,87,89,91,-1,93,95,-1,-1,-1,-1,-1,-1,-1,-1,-1,-1,-1,-1,-1,-1,-1,-1,-1,-1,-1,-1,-1,-1,-1,-1,-1,-1,-1,-1,-1,-1,-1,-1,-1,-1,-1,-1,-1,-1,-1,-1],"loss_changes":[1.3505419E3,1.4210052E0,2.9345703E-1,1.3812304E-1,4.0779877E-1,3.983438E-1,2.2229004E-1,1.2521451E-2,1.1610699E-1,1.3235718E-1,9.5401764E-2,4.4035196E-2,4.6876794E-1,1.7126465E-1,1.3952422E-1,5.34842E-4,0E0,8.7654434E-2,1.7862892E-1,2.2152364E-2,4.3554068E-2,5.973816E-2,0E0,3.2985687E-2,0E0,2.9574278E-1,8.378106E-2,1.3286877E-1,4.5288086E-1,8.5851505E-2,1.2305021E-1,0E0,4.8815535E-5,0E0,7.3398784E-2,1.14963055E-1,9.441981E-3,0E0,0E0,1.4156494E-2,1.6085386E-2,3.5499573E-2,2.2712386E0,2.1360546E-2,1.8847108E-2,6.1983645E-1,1.1995979E-1,1.8157576E-1,1.518786E-3,0E0,6.8473244E-1,5.794273E-1,2.1142578E-1,9.353582E-3,0E0,3.1975627E-2,1.4095306E-2,0E0,0E0,0E0,0E0,0E0,0E0,0E0,0E0,0E0,0E0,0E0,0E0,0E0,0E0,0E0,0E0,0E0,0E0,0E0,0E0,0E0,0E0,0E0,0E0,0E0,0E0,0E0,0E0,0E0,0E0,0E0,0E0,0E0,0E0,0E0,0E0,0E0,0E0,0E0,0E0],"parents":[2147483647,0,0,1,1,2,2,3,3,4,4,5,5,6,6,7,7,8,8,9,9,10,10,11,11,12,12,13,13,14,14,15,15,17,17,18,18,19,19,20,20,21,21,23,23,25,25,26,26,27,27,28,28,29,29,30,30,32,32,34,34,35,35,36,36,39,39,40,40,41,41,42,42,43,43,44,44,45,45,46,46,47,47,48,48,50,50,51,51,52,52,53,53,55,55,56,56],"right_children":[2,4,6,8,10,12,14,16,18,20,22,24,26,28,30,32,-1,34,36,38,40,42,-1,44,-1,46,48,50,52,54,56,-1,58,-1,60,62,64,-1,-1,66,68,70,72,74,76,78,80,82,84,-1,86,88,90,92,-1,94,96,-1,-1,-1,-1,-1,-1,-1,-1,-1,-1,-1,-1,-1,-1,-1,-1,-1,-1,-1,-1,-1,-1,-1,-1,-1,-1,-1,-1,-1,-1,-1,-1,-1,-1,-1,-1,-1,-1,-1,-1],"split_conditions":[-1.3342883E-6,-2.3869692E-5,-2.8904187E-5,2.7542312E0,-3.1758326E-1,8.5607857E-1,-7.802586E0,8.221936E-1,1.2387698E0,-8.346639E-2,3.2998574E-1,6.400853E0,-1.0380832E-5,7.7553755E-1,2.2844589E0,4.4834793E-1,-2.0556241E-2,-6.796712E-1,-5.868102E0,-1.1468219E-3,-1.6193851E1,1.509877E0,4.468012E-2,-2.0921198E-1,-1.517867E-2,-7.18923E-5,2.103559E1,-1.0768565E-5,-1.3319443E-6,1.0155876E1,-6.253511E-6,-1.6934465E-3,3.526319E0,4.158984E-2,8.8551587E-1,-7.2566147E0,-5.251988E-3,3.1451996E-2,-1.7584439E-3,-1.1588683E0,-2.5418532E-5,-1.860218E-4,7.550435E-1,-1.573471E-2,-1.2387628E-5,-9.803334E-2,-4.567503E0,1.1341255E0,4.1036668E-1,6.341159E-2,2.1099674E1,-4.5360166E-6,-3.2420915E-1,9.829816E0,3.5105094E-2,-5.9101358E-6,-1.9599015E-1,1.1395885E-3,4.2275945E-3,5.0718956E-2,-1.0298994E-2,3.618217E-2,-2.6652131E-2,-7.126268E-4,-2.054363E-2,2.7885381E-2,-1.6819935E-3,3.6306433E-2,-1.1437555E-3,-1.6587194E-3,1.6224448E-2,-3.7097288E-3,1.8508838E-1,2.306315E-2,5.7912633E-2,3.4320222E-3,3.464789E-2,-3.8803443E-2,3.9067514E-2,8.877734E-3,4.2211685E-2,-3.6254E-2,3.2984275E-2,5.2854657E-2,3.648633E-2,3.9047506E-2,-8.7045684E-2,-2.035845E-2,4.3789476E-2,3.3669706E-2,3.2005176E-2,-2.2562325E-2,5.5138003E-3,4.240337E-2,6.835279E-2,8.766307E-2,2.0111186E-2],"split_indices":[39,149,108,239,189,233,84,17,233,83,50,18,229,240,209,0,0,83,91,35,249,255,0,19,0,136,222,246,167,129,203,0,4,0,5,212,227,0,0,18,199,99,67,114,216,19,219,67,250,0,210,164,179,1,0,221,82,0,0,0,0,0,0,0,0,0,0,0,0,0,0,0,0,0,0,0,0,0,0,0,0,0,0,0,0,0,0,0,0,0,0,0,0,0,0,0,0],"split_type":[0,0,0,0,0,0,0,0,0,0,0,0,0,0,0,0,0,0,0,0,0,0,0,0,0,0,0,0,0,0,0,0,0,0,0,0,0,0,0,0,0,0,0,0,0,0,0,0,0,0,0,0,0,0,0,0,0,0,0,0,0,0,0,0,0,0,0,0,0,0,0,0,0,0,0,0,0,0,0,0,0,0,0,0,0,0,0,0,0,0,0,0,0,0,0,0,0],"sum_hessian":[2.188504E6,2.085533E6,1.02971E5,1.62E2,2.085371E6,3.26E2,1.02645E5,1E1,1.52E2,6.2E1,2.085309E6,1.47E2,1.79E2,1.02568E5,7.7E1,7E0,3E0,2E1,1.32E2,1.9E1,4.3E1,2.085306E6,3E0,1.46E2,1E0,1.1E2,6.9E1,5.04E2,1.02064E5,1.1E1,6.6E1,4E0,3E0,4E0,1.6E1,1.22E2,1E1,1E0,1.8E1,6E0,3.7E1,2.085172E6,1.34E2,1.6E1,1.3E2,4.3E1,6.7E1,1.4E1,5.5E1,2.1E1,4.83E2,5.1E1,1.02013E5,4E0,7E0,5.4E1,1.2E1,2E0,1E0,1E0,1.5E1,1.2E2,2E0,8E0,2E0,1E0,5E0,3.6E1,1E0,2.085163E6,9E0,1.29E2,5E0,4E0,1.2E1,2E0,1.28E2,3.1E1,1.2E1,5.6E1,1.1E1,4E0,1E1,6E0,4.9E1,4.8E2,3E0,3.1E1,2E1,9.4127E4,7.886E3,3E0,1E0,4.6E1,8E0,1.1E1,1E0],"tree_param":{"num_deleted":"0","num_feature":"256","num_nodes":"97","size_leaf_vector":"1"}},{"base_weights":[2.18806E-6,-3.8619982E-3,7.826513E-2,6.1822064E-2,-3.8671303E-3,6.685885E-2,7.840793E-2,-1.825379E-2,6.717508E-2,5.389808E-2,-3.8688737E-3,9.4231345E-2,2.6541516E-2,7.8321055E-2,9.0201795E-2,1.4528447E-3,-1.5931085E-2,5.013523E-2,9.008777E-2,4.925592E-3,7.493335E-2,-3.8692101E-3,9.692224E-2,1.1741419E-1,8.637974E-2,9.404663E-2,-2.3050709E-2,3.4066875E-2,7.836284E-2,8.266114E-2,1.0109482E-1,-3.1625594E-3,3.0598117E-3,6.0171366E-2,-6.0256615E-2,6.2930524E-2,3.9818324E-2,2.6734196E-2,-1.2586757E-3,8.08205E-2,-1.2429932E-3,-3.8702488E-3,1.2202456E-2,2.254354E-1,-1.6746446E-2,-4.0005412E-2,1.1944655E-1,3.415421E-2,8.7341174E-2,-2.1972327E-1,9.793316E-2,4.2362705E-2,-1.3806286E-1,5.715255E-2,-2.7091363E-1,8.534789E-2,7.825496E-2,2.6697922E-2,2.3643458E-2,1.0577288E-1,5.42157E-2,-1.2870192E-3,3.7124465E-4,-5.3016776E-3,2.3707395E-2,-5.8010574E-3,-5.200424E-2,-2.6801298E-3,2.1282328E-2,8.5727535E-3,2.5708877E-2,-1.1612118E-3,8.401198E-3,-2.6053712E-3,1.3881628E-1,8.909179E-2,3.0779637E-2,3.8473755E-2,2.703985E-2,-5.2410908E-2,2.0706998E-2,3.0075615E-2,2.4955316E-2,-1.1154816E-1,1.2672687E-2,2.456425E-2,3.805449E-2,-1.0587012E-1,1.5151177E-2,-2.3059286E-3,-1.2404888E-1,3.0862605E-2,1.7922675E-3,3.1484533E-2,-1.3267446E-1,2.4250371E-2,2.866138E-2,-2.119074E-3,2.3481406E-2,3.111785E-2,6.463096E-2,-9.289517E-3,2.4817852E-2],"categories":[],"categories_nodes":[],"categories_segments":[],"categories_sizes":[],"default_left":[0,0,0,0,0,0,0,0,0,0,0,0,0,0,0,0,0,0,0,0,0,0,0,0,0,0,0,0,0,0,0,0,0,0,0,0,0,0,0,0,0,0,0,0,0,0,0,0,0,0,0,0,0,0,0,0,0,0,0,0,0,0,0,0,0,0,0,0,0,0,0,0,0,0,0,0,0,0,0,0,0,0,0,0,0,0,0,0,0,0,0,0,0,0,0,0,0,0,0,0,0,0,0],"id":7,"left_children":[1,3,5,7,9,11,13,15,17,19,21,23,25,27,29,31,-1,33,35,37,39,41,43,45,47,49,51,53,55,57,59,61,-1,63,65,67,-1,-1,-1,69,-1,71,73,75,-1,-1,77,79,81,83,85,87,89,91,93,95,97,-1,-1,99,101,-1,-1,-1,-1,-1,-1,-1,-1,-1,-1,-1,-1,-1,-1,-1,-1,-1,-1,-1,-1,-1,-1,-1,-1,-1,-1,-1,-1,-1,-1,-1,-1,-1,-1,-1,-1,-1,-1,-1,-1,-1,-1],"loss_changes":[6.618536E2,7.032852E-1,1.6247559E-1,7.1095765E-2,2.1021271E-1,1.410089E0,9.716797E-2,7.631652E-3,5.5219114E-2,6.453033E-2,7.109833E-2,1.2855959E-1,1.739639E0,1.8395996E-1,5.2180767E-2,3.5520614E-4,0E0,1.0333742E-1,6.575835E-2,1.5731832E-2,2.0818472E-2,3.4856796E-2,1.4999118E-1,1.1276126E-1,2.5787354E-2,2.898028E-1,2.26285E0,6.984296E-1,6.933594E-2,3.7362576E-3,5.939865E-2,3.5075285E-5,0E0,1.23208016E-1,3.3669204E-2,2.4236381E-2,0E0,0E0,0E0,7.995129E-3,0E0,3.0464172E-2,1.2743673E0,4.6805292E-3,0E0,0E0,3.719139E-2,9.945057E-2,2.1822453E-2,1.3524482E-1,9.079933E-2,6.3566387E-1,3.9110143E0,2.1232682E-1,4.9720037E-1,6.232071E-2,1.3946533E-1,0E0,0E0,3.8030624E-2,7.298938E-2,0E0,0E0,0E0,0E0,0E0,0E0,0E0,0E0,0E0,0E0,0E0,0E0,0E0,0E0,0E0,0E0,0E0,0E0,0E0,0E0,0E0,0E0,0E0,0E0,0E0,0E0,0E0,0E0,0E0,0E0,0E0,0E0,0E0,0E0,0E0,0E0,0E0,0E0,0E0,0E0,0E0,0E0],"parents":[2147483647,0,0,1,1,2,2,3,3,4,4,5,5,6,6,7,7,8,8,9,9,10,10,11,11,12,12,13,13,14,14,15,15,17,17,18,18,19,19,20,20,21,21,22,22,23,23,24,24,25,25,26,26,27,27,28,28,29,29,30,30,31,31,33,33,34,34,35,35,39,39,41,41,42,42,43,43,46,46,47,47,48,48,49,49,50,50,51,51,52,52,53,53,54,54,55,55,56,56,59,59,60,60],"right_children":[2,4,6,8,10,12,14,16,18,20,22,24,26,28,30,32,-1,34,36,38,40,42,44,46,48,50,52,54,56,58,60,62,-1,64,66,68,-1,-1,-1,70,-1,72,74,76,-1,-1,78,80,82,84,86,88,90,92,94,96,98,-1,-1,100,102,-1,-1,-1,-1,-1,-1,-1,-1,-1,-1,-1,-1,-1,-1,-1,-1,-1,-1,-1,-1,-1,-1,-1,-1,-1,-1,-1,-1,-1,-1,-1,-1,-1,-1,-1,-1,-1,-1,-1,-1,-1,-1],"split_conditions":[-1.3342883E-6,-2.3869692E-5,1.3610985E0,2.7542312E0,-3.1758326E-1,7.438953E-1,-6.897077E0,8.221936E-1,-3.3006817E-1,-8.346639E-2,1.5118616E0,1.5434225E0,-3.676061E1,-4.1833104E-5,-3.2420915E-1,-7.1553823E-6,-1.5931085E-2,-6.008849E0,-6.152347E-6,-1.1468219E-3,-2.5418532E-5,1.509877E0,-6.785077E0,7.196633E-1,-4.5360166E-6,3.3589027E1,2.3539212E-1,2.4803534E0,8.5607857E-1,2.0993662E0,-2.1751925E-1,4.4834793E-1,3.0598117E-3,4.1770077E0,4.8728335E-1,3.6224943E-1,3.9818324E-2,2.6734196E-2,-1.2586757E-3,-1.4565045E1,-1.2429932E-3,3.465466E-3,7.550435E-1,6.004826E0,-1.6746446E-2,-4.0005412E-2,-4.5028176E0,-2.274042E0,1.5624459E0,1.7213032E0,-5.496223E-6,2.0163E-1,-5.5361376E0,-2.6490605E-3,-2.8990473E-5,-9.5984423E-1,-1.830801E-5,2.6697922E-2,2.3643458E-2,-5.9156982E-6,-2.3447636E-5,-1.2870192E-3,3.7124465E-4,-5.3016776E-3,2.3707395E-2,-5.8010574E-3,-5.200424E-2,-2.6801298E-3,2.1282328E-2,8.5727535E-3,2.5708877E-2,-1.1612118E-3,8.401198E-3,-2.6053712E-3,1.3881628E-1,8.909179E-2,3.0779637E-2,3.8473755E-2,2.703985E-2,-5.2410908E-2,2.0706998E-2,3.0075615E-2,2.4955316E-2,-1.1154816E-1,1.2672687E-2,2.456425E-2,3.805449E-2,-1.0587012E-1,1.5151177E-2,-2.3059286E-3,-1.2404888E-1,3.0862605E-2,1.7922675E-3,3.1484533E-2,-1.3267446E-1,2.4250371E-2,2.866138E-2,-2.119074E-3,2.3481406E-2,3.111785E-2,6.463096E-2,-9.289517E-3,2.4817852E-2],"split_indices":[39,149,17,239,189,241,155,17,205,83,74,192,161,187,179,2,0,91,139,35,199,255,15,131,164,158,58,192,233,49,115,0,0,224,0,0,0,0,0,201,0,227,67,1,0,0,76,18,153,10,254,131,230,163,7,13,171,0,0,29,213,0,0,0,0,0,0,0,0,0,0,0,0,0,0,0,0,0,0,0,0,0,0,0,0,0,0,0,0,0,0,0,0,0,0,0,0,0,0,0,0,0,0],"split_type":[0,0,0,0,0,0,0,0,0,0,0,0,0,0,0,0,0,0,0,0,0,0,0,0,0,0,0,0,0,0,0,0,0,0,0,0,0,0,0,0,0,0,0,0,0,0,0,0,0,0,0,0,0,0,0,0,0,0,0,0,0,0,0,0,0,0,0,0,0,0,0,0,0,0,0,0,0,0,0,0,0,0,0,0,0,0,0,0,0,0,0,0,0,0,0,0,0,0,0,0,0,0,0],"sum_hessian":[2.188504E6,2.085533E6,1.02971E5,1.62E2,2.085371E6,1.279E3,1.01692E5,1E1,1.52E2,6.2E1,2.085309E6,7.61E2,5.18E2,1.00956E5,7.36E2,7E0,3E0,8.9E1,6.3E1,1.9E1,4.3E1,2.085303E6,6E0,1.89E2,5.72E2,2.19E2,2.99E2,9.6E1,1.0086E5,4.4E2,2.96E2,5E0,2E0,8.2E1,7E0,4E1,2.3E1,1E0,1.8E1,4E1,3E0,2.085169E6,1.34E2,3E0,3E0,1E0,1.88E2,1.1E1,5.61E2,2E0,2.17E2,1.91E2,1.08E2,9E1,6E0,1.522E3,9.9338E4,1.58E2,2.82E2,2.68E2,2.8E1,4E0,1E0,1.6E1,6.6E1,6E0,1E0,4E0,3.6E1,4E0,3.6E1,2.08514E6,2.9E1,1.29E2,5E0,1E0,2E0,1.42E2,4.6E1,1E0,1E1,1.31E2,4.3E2,1E0,1E0,1.42E2,7.5E1,3E0,1.88E2,7.4E1,3.4E1,4.7E1,4.3E1,2E0,4E0,1.061E3,4.61E2,1.9E1,9.9319E4,2.65E2,3E0,7E0,2.1E1],"tree_param":{"num_deleted":"0","num_feature":"256","num_nodes":"103","size_leaf_vector":"1"}},{"base_weights":[1.6554085E-6,-2.70325E-3,5.4785207E-2,4.3307558E-2,-2.706845E-3,6.6215485E-2,5.4675523E-2,-1.4031022E-2,4.7146883E-2,3.8657468E-2,-2.7080933E-3,6.810912E-2,3.7751883E-2,4.7773305E-2,5.4945707E-2,-3.359926E-3,-1.8111298E-2,5.4981507E-2,1.810859E-2,2.9576708E-2,3.2123487E-2,-2.7083782E-3,8.2577705E-2,6.205085E-2,7.743984E-2,6.316227E-2,-2.9283095E-2,3.2278523E-2,5.5236798E-2,8.784244E-2,5.4903198E-2,1.2849958E-3,-4.387923E-3,6.2231004E-2,-2.251177E-2,7.4431196E-2,-5.1447977E-3,-4.430417E-3,1.6333027E-2,-6.561927E-2,-2.7081356E-3,1.8777263E-1,-1.2978497E-2,6.4280905E-2,-5.4687593E-2,1.6119124E-1,7.578284E-2,7.4783295E-2,5.302077E-2,8.167764E-3,-1.2828888E-1,-5.202753E-4,5.883068E-2,5.18397E-2,6.117987E-2,3.8175426E-2,1.00500695E-1,5.5209074E-2,5.1266983E-2,-4.549968E-4,3.1344837E-3,2.750544E-2,1.5316651E-2,4.1490905E-3,-3.721022E-2,3.9988197E-2,1.2916126E-2,-1.0201156E-2,2.217657E-2,-9.009468E-4,-2.3014485E-3,-7.4712717E-4,-2.2284571E-2,-8.1254926E-4,4.4613738E-2,7.572803E-2,2.4623705E-2,2.008609E-2,1.4118795E-2,3.4813203E-2,-8.48323E-2,5.4648962E-2,8.449718E-3,3.1875145E-2,2.1618074E-2,3.0680478E-4,2.364729E-2,1.0954873E-2,1.7339032E-2,-1.4489354E-2,1.0675139E-2,-4.3644737E-2,-8.927196E-3,-2.0487892E-2,1.5283873E-2,2.079181E-2,1.4751651E-2,-2.0562902E-2,1.5893934E-2,1.8625632E-2,-2.6994953E-2,2.188354E-2,1.6489939E-3,3.81874E-2,2.3026144E-2,1.8499475E-2,1.652221E-2,1.5849682E-2,8.743052E-4],"categories":[],"categories_nodes":[],"categories_segments":[],"categories_sizes":[],"default_left":[0,0,0,0,0,0,0,0,0,0,0,0,0,0,0,0,0,0,0,0,0,0,0,0,0,0,0,0,0,0,0,0,0,0,0,0,0,0,0,0,0,0,0,0,0,0,0,0,0,0,0,0,0,0,0,0,0,0,0,0,0,0,0,0,0,0,0,0,0,0,0,0,0,0,0,0,0,0,0,0,0,0,0,0,0,0,0,0,0,0,0,0,0,0,0,0,0,0,0,0,0,0,0,0,0,0,0,0,0],"id":8,"left_children":[1,3,5,7,9,11,13,15,17,19,21,23,25,27,29,31,-1,33,35,37,-1,39,41,43,45,47,49,51,53,55,57,59,-1,61,63,65,67,69,-1,71,73,75,-1,77,79,81,83,85,87,89,91,93,95,97,99,101,103,105,107,-1,-1,-1,-1,-1,-1,-1,-1,-1,-1,-1,-1,-1,-1,-1,-1,-1,-1,-1,-1,-1,-1,-1,-1,-1,-1,-1,-1,-1,-1,-1,-1,-1,-1,-1,-1,-1,-1,-1,-1,-1,-1,-1,-1,-1,-1,-1,-1,-1,-1],"loss_changes":[3.2430228E2,3.4508896E-1,1.255188E-1,3.654456E-2,1.0778999E-1,4.9926758E-2,1.8756104E-1,5.2366387E-3,3.3812493E-2,3.5975687E-2,5.090809E-2,4.674864E-2,1.09162815E-1,4.4345188E-1,1.3244629E-1,5.421142E-4,0E0,6.881541E-2,4.4912443E-2,4.8442993E-2,0E0,3.165531E-2,1.0078699E-1,1.487813E-1,3.704977E-2,1.4562458E-3,6.778917E-2,1.0921124E0,4.9259663E-2,7.47506E-2,1.0620117E-1,2.2122505E-4,0E0,3.1526685E-2,4.2300258E-2,1.2730833E-2,5.9558377E-2,9.260792E-5,0E0,4.189905E-3,1.1463261E-1,6.615162E-3,0E0,2.2067785E-2,4.6117198E-1,1.1608064E-2,3.204012E-2,5.5826455E-3,9.660423E-5,2.3391498E-2,4.1413754E-3,1.9637492E0,6.670761E-2,2.3132133E-1,1.3412452E-1,3.0277308E-2,5.321306E-2,7.543945E-2,5.765705E-1,0E0,0E0,0E0,0E0,0E0,0E0,0E0,0E0,0E0,0E0,0E0,0E0,0E0,0E0,0E0,0E0,0E0,0E0,0E0,0E0,0E0,0E0,0E0,0E0,0E0,0E0,0E0,0E0,0E0,0E0,0E0,0E0,0E0,0E0,0E0,0E0,0E0,0E0,0E0,0E0,0E0,0E0,0E0,0E0,0E0,0E0,0E0,0E0,0E0,0E0],"parents":[2147483647,0,0,1,1,2,2,3,3,4,4,5,5,6,6,7,7,8,8,9,9,10,10,11,11,12,12,13,13,14,14,15,15,17,17,18,18,19,19,21,21,22,22,23,23,24,24,25,25,26,26,27,27,28,28,29,29,30,30,31,31,33,33,34,34,35,35,36,36,37,37,39,39,40,40,41,41,43,43,44,44,45,45,46,46,47,47,48,48,49,49,50,50,51,51,52,52,53,53,54,54,55,55,56,56,57,57,58,58],"right_children":[2,4,6,8,10,12,14,16,18,20,22,24,26,28,30,32,-1,34,36,38,-1,40,42,44,46,48,50,52,54,56,58,60,-1,62,64,66,68,70,-1,72,74,76,-1,78,80,82,84,86,88,90,92,94,96,98,100,102,104,106,108,-1,-1,-1,-1,-1,-1,-1,-1,-1,-1,-1,-1,-1,-1,-1,-1,-1,-1,-1,-1,-1,-1,-1,-1,-1,-1,-1,-1,-1,-1,-1,-1,-1,-1,-1,-1,-1,-1,-1,-1,-1,-1,-1,-1,-1,-1,-1,-1,-1,-1],"split_conditions":[-1.3342883E-6,-2.3869692E-5,9.924679E-1,2.7542312E0,-3.1758326E-1,-1.2235351E-5,5.2153367E-1,8.53317E-1,-2.7959636E-1,-5.243514E-6,1.5118616E0,-1.24900025E-5,9.832966E-1,2.2152061E0,-4.219072E-5,8.221936E-1,-1.8111298E-2,-5.8697653E0,-5.4287284E-6,-6.1278392E-6,3.2123487E-2,-2.0645964E1,-6.785077E0,-1.6157291E1,-3.089877E-5,2.9897827E-1,1.9707099E-2,-4.545912E-6,-6.407773E-6,5.5046663E0,-7.4754557E-6,3.526319E0,-4.387923E-3,-6.91149E-6,-4.0469887E1,-7.0482456E-6,1.1236793E0,-8.346639E-2,1.6333027E-2,4.6682253E-1,-1.860218E-4,6.004826E0,-1.2978497E-2,1.1500827E1,-1.0499269E1,4.14028E0,-1.7084173E0,9.139334E-1,-4.582912E-6,-2.099231E1,9.829816E0,-6.253511E-6,4.059816E0,4.5543242E-1,9.404321E0,6.3501537E-1,8.3674616E-1,8.780142E0,4.80665E0,-4.549968E-4,3.1344837E-3,2.750544E-2,1.5316651E-2,4.1490905E-3,-3.721022E-2,3.9988197E-2,1.2916126E-2,-1.0201156E-2,2.217657E-2,-9.009468E-4,-2.3014485E-3,-7.4712717E-4,-2.2284571E-2,-8.1254926E-4,4.4613738E-2,7.572803E-2,2.4623705E-2,2.008609E-2,1.4118795E-2,3.4813203E-2,-8.48323E-2,5.4648962E-2,8.449718E-3,3.1875145E-2,2.1618074E-2,3.0680478E-4,2.364729E-2,1.0954873E-2,1.7339032E-2,-1.4489354E-2,1.0675139E-2,-4.3644737E-2,-8.927196E-3,-2.0487892E-2,1.5283873E-2,2.079181E-2,1.4751651E-2,-2.0562902E-2,1.5893934E-2,1.8625632E-2,-2.6994953E-2,2.188354E-2,1.6489939E-3,3.81874E-2,2.3026144E-2,1.8499475E-2,1.652221E-2,1.5849682E-2,8.743052E-4],"split_indices":[39,149,131,239,189,88,244,3,243,254,74,152,197,81,251,17,0,155,254,203,0,97,15,137,135,122,122,100,139,31,226,4,0,194,207,130,191,83,0,63,99,1,0,151,30,18,28,92,36,210,1,203,202,180,18,241,192,132,28,0,0,0,0,0,0,0,0,0,0,0,0,0,0,0,0,0,0,0,0,0,0,0,0,0,0,0,0,0,0,0,0,0,0,0,0,0,0,0,0,0,0,0,0,0,0,0,0,0,0],"split_type":[0,0,0,0,0,0,0,0,0,0,0,0,0,0,0,0,0,0,0,0,0,0,0,0,0,0,0,0,0,0,0,0,0,0,0,0,0,0,0,0,0,0,0,0,0,0,0,0,0,0,0,0,0,0,0,0,0,0,0,0,0,0,0,0,0,0,0,0,0,0,0,0,0,0,0,0,0,0,0,0,0,0,0,0,0,0,0,0,0,0,0,0,0,0,0,0,0,0,0,0,0,0,0,0,0,0,0,0,0],"sum_hessian":[2.188504E6,2.085533E6,1.02971E5,1.62E2,2.085371E6,9.73E2,1.01998E5,1E1,1.52E2,6.2E1,2.085309E6,9.11E2,6.2E1,3.849E3,9.8149E4,9E0,1E0,1.19E2,3.3E1,5.6E1,6E0,2.085303E6,6E0,5.57E2,3.54E2,4.5E1,1.7E1,1.253E3,2.596E3,1.24E2,9.8025E4,7E0,2E0,1.09E2,1E1,9E0,2.4E1,2.4E1,3.2E1,7E0,2.085296E6,3E0,3E0,5.47E2,1E1,5E0,3.49E2,1.8E1,2.7E1,1.3E1,4E0,5.61E2,6.92E2,1.658E3,9.38E2,2.6E1,9.8E1,9.0406E4,7.619E3,6E0,1E0,2.8E1,8.1E1,8E0,2E0,2E0,7E0,1.8E1,6E0,1.8E1,6E0,1E0,6E0,2.085292E6,4E0,1E0,2E0,4.71E2,7.6E1,6E0,4E0,4E0,1E0,3.5E1,3.14E2,1E0,1.7E1,8E0,1.9E1,4E0,9E0,3E0,1E0,2.42E2,3.19E2,3.29E2,3.63E2,1.5E1,1.643E3,9.33E2,5E0,1.2E1,1.4E1,4.4E1,5.4E1,1.843E3,8.8563E4,7.38E3,2.39E2],"tree_param":{"num_deleted":"0","num_feature":"256","num_nodes":"109","size_leaf_vector":"1"}},{"base_weights":[1.3674801E-6,-1.8915519E-3,3.8367197E-2,2.912353E-2,-1.8944363E-3,5.3220406E-2,3.8299836E-2,9.076397E-2,2.6330765E-2,-1.8953456E-3,3.7654057E-2,4.11585E-2,6.285043E-2,-9.204162E-3,3.833891E-2,8.277061E-3,4.4112056E-2,-2.323879E-2,3.0167794E-2,-1.8956071E-3,6.647696E-2,8.5832775E-2,2.0631894E-2,8.8023186E-2,3.933072E-2,7.244039E-2,4.3162696E-2,2.6651703E-2,-1.7830832E-1,3.6156468E-2,3.8771927E-2,-4.3890197E-2,1.1808685E-2,3.5411894E-2,-1.1982378E-2,-1.8963994E-3,1.0357218E-2,1.5652877E-1,-1.8859878E-2,-2.4671458E-2,3.8118362E-2,3.1854812E-5,3.0797498E-2,4.082663E-2,-7.350664E-2,4.3562848E-2,8.344498E-2,4.3670386E-2,4.3679597E-3,5.7968076E-2,-5.067147E-2,1.5162472E-2,-1.4131248E-1,1.565685E-2,3.7778016E-2,5.3951856E-2,3.869806E-2,-4.659058E-3,-2.2444852E-2,-3.9552967E-3,1.1764699E-2,2.8157182E-4,-3.8622066E-2,1.0362912E-2,-5.689982E-4,-1.5878825E-3,1.0431534E-1,6.4368814E-2,1.9698966E-2,-1.0058334E-2,5.97176E-3,-6.3505815E-4,1.1761294E-2,5.324305E-3,1.2987708E-2,-1.9857762E-3,-3.1092213E-2,1.44035E-2,-2.5497042E-2,6.9726445E-2,2.2927577E-2,1.4362153E-2,1.1498124E-2,-2.9182069E-2,2.0909164E-2,1.3255263E-3,-6.835285E-2,9.0036355E-3,-1.7772652E-2,1.3604624E-2,-6.3657514E-3,1.1784898E-2,8.800897E-3,-2.3164539E-2,1.6434615E-2,2.1743914E-2,1.1604867E-2],"categories":[],"categories_nodes":[],"categories_segments":[],"categories_sizes":[],"default_left":[0,0,0,0,0,0,0,0,0,0,0,0,0,0,0,0,0,0,0,0,0,0,0,0,0,0,0,0,0,0,0,0,0,0,0,0,0,0,0,0,0,0,0,0,0,0,0,0,0,0,0,0,0,0,0,0,0,0,0,0,0,0,0,0,0,0,0,0,0,0,0,0,0,0,0,0,0,0,0,0,0,0,0,0,0,0,0,0,0,0,0,0,0,0,0,0,0],"id":9,"left_children":[1,3,5,7,9,11,13,15,17,19,21,23,25,27,29,-1,-1,31,33,35,37,-1,39,41,43,45,47,49,51,53,55,57,-1,59,61,63,65,67,69,-1,71,-1,-1,73,75,77,79,81,-1,83,85,87,-1,89,91,93,95,-1,-1,-1,-1,-1,-1,-1,-1,-1,-1,-1,-1,-1,-1,-1,-1,-1,-1,-1,-1,-1,-1,-1,-1,-1,-1,-1,-1,-1,-1,-1,-1,-1,-1,-1,-1,-1,-1,-1,-1],"loss_changes":[1.5893681E2,1.866293E-1,1.0092163E-1,3.1006679E-2,7.507372E-2,5.1077485E-2,1.9049072E-1,2.438458E-2,3.6268428E-2,3.7395477E-2,1.9710079E-1,1.4354914E-2,4.5018435E-2,5.201392E-1,9.5321655E-2,0E0,0E0,1.9826822E-2,3.8885236E-2,2.0265102E-2,6.443001E-2,0E0,8.588116E-2,8.995838E-3,3.7097454E-2,5.0388455E-2,6.1300397E-4,1.748625E-1,8.5667217E-1,5.6320953E-1,9.3673706E-2,8.485759E-3,0E0,2.9168576E-2,3.0293278E-2,1.991415E-2,7.146062E-1,7.0042685E-3,3.51046E-3,0E0,1.8307269E-3,0E0,0E0,1.0612935E-2,5.360741E-3,3.2104038E-2,1.0982156E-1,5.1796436E-5,0E0,9.964305E-2,2.0597404E-1,1.2826808E-2,0E0,1.3641363E0,1.9852257E-1,4.8985362E-2,4.0740967E-2,0E0,0E0,0E0,0E0,0E0,0E0,0E0,0E0,0E0,0E0,0E0,0E0,0E0,0E0,0E0,0E0,0E0,0E0,0E0,0E0,0E0,0E0,0E0,0E0,0E0,0E0,0E0,0E0,0E0,0E0,0E0,0E0,0E0,0E0,0E0,0E0,0E0,0E0,0E0,0E0],"parents":[2147483647,0,0,1,1,2,2,3,3,4,4,5,5,6,6,7,7,8,8,9,9,10,10,11,11,12,12,13,13,14,14,17,17,18,18,19,19,20,20,22,22,23,23,24,24,25,25,26,26,27,27,28,28,29,29,30,30,31,31,33,33,34,34,35,35,36,36,37,37,38,38,40,40,43,43,44,44,45,45,46,46,47,47,49,49,50,50,51,51,53,53,54,54,55,55,56,56],"right_children":[2,4,6,8,10,12,14,16,18,20,22,24,26,28,30,-1,-1,32,34,36,38,-1,40,42,44,46,48,50,52,54,56,58,-1,60,62,64,66,68,70,-1,72,-1,-1,74,76,78,80,82,-1,84,86,88,-1,90,92,94,96,-1,-1,-1,-1,-1,-1,-1,-1,-1,-1,-1,-1,-1,-1,-1,-1,-1,-1,-1,-1,-1,-1,-1,-1,-1,-1,-1,-1,-1,-1,-1,-1,-1,-1,-1,-1,-1,-1,-1,-1],"split_conditions":[-2.2361994E-5,-2.3869692E-5,1.000041E1,1.20529436E-1,-1.860218E-4,1.8810658E-1,-1.830801E-5,8.090882E-2,3.3103913E-1,1.5118616E0,7.8338873E-1,-6.785077E0,2.041009E0,2.3875637E0,1.4674375E0,8.277061E-3,4.4112056E-2,-6.975237E-6,-6.793657E-5,1.509877E0,-6.785077E0,8.5832775E-2,-7.1759387E-6,7.5731087E-1,4.406712E0,-1.3326503E-6,1.3312763E1,5.295753E-3,5.752085E-1,-5.6226377E0,2.688194E-2,-4.582912E-6,1.1808685E-2,3.131189E0,-3.0131263E-5,-5.94244E-6,7.550435E-1,6.004826E0,6.4641275E0,-2.4671458E-2,2.922891E-1,3.1854812E-5,3.0797498E-2,1.5624459E0,9.829816E0,-6.3324136E-5,4.876248E0,2.2876792E0,4.3679597E-3,9.4398016E-1,7.403875E0,1.1588641E0,-1.4131248E-1,-3.9397194E1,2.3837236E1,6.8419164E-1,4.382143E0,-4.659058E-3,-2.2444852E-2,-3.9552967E-3,1.1764699E-2,2.8157182E-4,-3.8622066E-2,1.0362912E-2,-5.689982E-4,-1.5878825E-3,1.0431534E-1,6.4368814E-2,1.9698966E-2,-1.0058334E-2,5.97176E-3,-6.3505815E-4,1.1761294E-2,5.324305E-3,1.2987708E-2,-1.9857762E-3,-3.1092213E-2,1.44035E-2,-2.5497042E-2,6.9726445E-2,2.2927577E-2,1.4362153E-2,1.1498124E-2,-2.9182069E-2,2.0909164E-2,1.3255263E-3,-6.835285E-2,9.0036355E-3,-1.7772652E-2,1.3604624E-2,-6.3657514E-3,1.1784898E-2,8.800897E-3,-2.3164539E-2,1.6434615E-2,2.1743914E-2,1.1604867E-2],"split_indices":[43,149,193,50,99,18,171,50,242,74,81,15,17,210,233,0,0,194,136,255,15,0,66,3,38,103,146,248,82,207,252,36,0,239,7,93,67,1,1,0,0,0,0,153,1,78,109,5,0,3,87,10,0,225,220,178,42,0,0,0,0,0,0,0,0,0,0,0,0,0,0,0,0,0,0,0,0,0,0,0,0,0,0,0,0,0,0,0,0,0,0,0,0,0,0,0,0],"split_type":[0,0,0,0,0,0,0,0,0,0,0,0,0,0,0,0,0,0,0,0,0,0,0,0,0,0,0,0,0,0,0,0,0,0,0,0,0,0,0,0,0,0,0,0,0,0,0,0,0,0,0,0,0,0,0,0,0,0,0,0,0,0,0,0,0,0,0,0,0,0,0,0,0,0,0,0,0,0,0,0,0,0,0,0,0,0,0,0,0,0,0,0,0,0,0,0,0],"sum_hessian":[2.188504E6,2.085604E6,1.029E5,1.93E2,2.085411E6,4.61E2,1.02439E5,7E0,1.86E2,2.085364E6,4.7E1,2.07E2,2.54E2,8.4E1,1.02355E5,4E0,3E0,1.3E1,1.73E2,2.085357E6,7E0,2E0,4.5E1,6E0,2.01E2,1.69E2,8.5E1,7E1,1.4E1,1.696E4,8.5395E4,1E1,3E0,1.54E2,1.9E1,2.085223E6,1.34E2,3E0,4E0,6E0,3.9E1,1E0,5E0,1.99E2,2E0,4.8E1,1.21E2,8.3E1,2E0,5E1,2E1,9E0,5E0,1.244E3,1.5716E4,4.1E2,8.4985E4,6E0,4E0,1.1E1,1.43E2,1.8E1,1E0,1.4E1,2.085209E6,1.29E2,5E0,1E0,2E0,3E0,1E0,1E0,3.8E1,2E1,1.79E2,1E0,1E0,4.7E1,1E0,4E0,1.17E2,4.2E1,4.1E1,3E0,4.7E1,1.6E1,4E0,8E0,1E0,6.89E2,5.55E2,1.3335E4,2.381E3,2E0,4.08E2,3.6E1,8.4949E4],"tree_param":{"num_deleted":"0","num_feature":"256","num_nodes":"97","size_leaf_vector":"1"}}]},"name":"gbtree"},"learner_model_param":{"base_score":"4.6989176E-2","boost_from_average":"1","num_class":"0","num_feature":"256","num_target":"1"},"objective":{"name":"reg:squarederror","reg_loss_param":{"scale_pos_weight":"1"}}},"version":[2,0,0]}